digraph Tree {
node [shape=box] ;
0 [label="variance X <= 0.4435\nentropy = 0.9055\nsamples = 14346\nvalue = [4605, 9741]"] ;
1 [label="entropy <= 249.9719\nentropy = 0.2064\nsamples = 9221\nvalue = [299, 8922]"] ;
0 -> 1 [labeldistance=2.5, labelangle=45, headlabel="True"] ;
2 [label="magnitude <= 207.0692\nentropy = 0.6346\nsamples = 1149\nvalue = [184, 965]"] ;
1 -> 2 ;
3 [label="max Y <= 8.2445\nentropy = 0.5316\nsamples = 1068\nvalue = [129, 939]"] ;
2 -> 3 ;
4 [label="entropy = 0.4936\nsamples = 1047\nvalue = [113, 934]"] ;
3 -> 4 ;
5 [label="entropy = 0.7919\nsamples = 21\nvalue = [16, 5]"] ;
3 -> 5 ;
6 [label="variance Y <= 0.0735\nentropy = 0.9055\nsamples = 81\nvalue = [55, 26]"] ;
2 -> 6 ;
7 [label="entropy = 0.3912\nsamples = 13\nvalue = [1, 12]"] ;
6 -> 7 ;
8 [label="entropy = 0.7335\nsamples = 68\nvalue = [54, 14]"] ;
6 -> 8 ;
9 [label="mean Z <= 9.293\nentropy = 0.1078\nsamples = 8072\nvalue = [115, 7957]"] ;
1 -> 9 ;
10 [label="mean X <= -3.0735\nentropy = 0.5639\nsamples = 272\nvalue = [36, 236]"] ;
9 -> 10 ;
11 [label="entropy = 0.1687\nsamples = 80\nvalue = [2, 78]"] ;
10 -> 11 ;
12 [label="entropy = 0.6737\nsamples = 192\nvalue = [34, 158]"] ;
10 -> 12 ;
13 [label="variance Y <= 0.0012\nentropy = 0.0816\nsamples = 7800\nvalue = [79, 7721]"] ;
9 -> 13 ;
14 [label="entropy = 0.4172\nsamples = 427\nvalue = [36, 391]"] ;
13 -> 14 ;
15 [label="entropy = 0.0517\nsamples = 7373\nvalue = [43, 7330]"] ;
13 -> 15 ;
16 [label="magnitude <= 84.6224\nentropy = 0.6338\nsamples = 5125\nvalue = [4306, 819]"] ;
0 -> 16 [labeldistance=2.5, labelangle=-45, headlabel="False"] ;
17 [label="max Y <= 3.157\nentropy = 0.9973\nsamples = 554\nvalue = [294, 260]"] ;
16 -> 17 ;
18 [label="variance Y <= 1.6147\nentropy = 0.9693\nsamples = 141\nvalue = [85, 56]"] ;
17 -> 18 ;
19 [label="entropy = 0.9877\nsamples = 46\nvalue = [20, 26]"] ;
18 -> 19 ;
20 [label="entropy = 0.8997\nsamples = 95\nvalue = [65, 30]"] ;
18 -> 20 ;
21 [label="mean Y <= -1.034\nentropy = 0.9999\nsamples = 413\nvalue = [209, 204]"] ;
17 -> 21 ;
22 [label="entropy = 0.0\nsamples = 5\nvalue = [0, 5]"] ;
21 -> 22 ;
23 [label="entropy = 0.9996\nsamples = 408\nvalue = [209, 199]"] ;
21 -> 23 ;
24 [label="variance X <= 1.9072\nentropy = 0.5359\nsamples = 4571\nvalue = [4012, 559]"] ;
16 -> 24 ;
25 [label="mean Z <= 10.1784\nentropy = 0.8521\nsamples = 1452\nvalue = [1049, 403]"] ;
24 -> 25 ;
26 [label="entropy = 0.9303\nsamples = 1145\nvalue = [749, 396]"] ;
25 -> 26 ;
27 [label="entropy = 0.1569\nsamples = 307\nvalue = [300, 7]"] ;
25 -> 27 ;
28 [label="max Z <= 11.8368\nentropy = 0.2865\nsamples = 3119\nvalue = [2963, 156]"] ;
24 -> 28 ;
29 [label="entropy = 0.8838\nsamples = 394\nvalue = [275, 119]"] ;
28 -> 29 ;
30 [label="entropy = 0.1037\nsamples = 2725\nvalue = [2688, 37]"] ;
28 -> 30 ;
}